digraph Tree {
node [shape=box] ;
0 [label="X[1] <= 127.5\nentropy = 0.9331\nsamples = 768\nvalue = [500, 268]"] ;
1 [label="X[5] <= 26.45\nentropy = 0.7094\nsamples = 485\nvalue = [391, 94]"] ;
0 -> 1 [labeldistance=2.5, labelangle=45, headlabel="True"] ;
3 [label="X[1] <= 106.5\nentropy = 0.1565\nsamples = 132\nvalue = [129, 3]"] ;
1 -> 3 ;
29 [label="entropy = 0.0\nsamples = 85\nvalue = [85, 0]"] ;
3 -> 29 ;
30 [label="X[5] <= 23.05\nentropy = 0.3425\nsamples = 47\nvalue = [44, 3]"] ;
3 -> 30 ;
31 [label="entropy = 0.7219\nsamples = 15\nvalue = [12, 3]"] ;
30 -> 31 ;
32 [label="entropy = 0.0\nsamples = 32\nvalue = [32, 0]"] ;
30 -> 32 ;
4 [label="X[1] <= 99.5\nentropy = 0.8234\nsamples = 353\nvalue = [262, 91]"] ;
1 -> 4 ;
7 [label="X[6] <= 0.664\nentropy = 0.5276\nsamples = 134\nvalue = [118, 16]"] ;
4 -> 7 ;
23 [label="X[3] <= 24.5\nentropy = 0.4034\nsamples = 112\nvalue = [103, 9]"] ;
7 -> 23 ;
33 [label="X[6] <= 0.2685\nentropy = 0.1371\nsamples = 52\nvalue = [51, 1]"] ;
23 -> 33 ;
43 [label="entropy = 0.3534\nsamples = 15\nvalue = [14, 1]"] ;
33 -> 43 ;
44 [label="entropy = 0.0\nsamples = 37\nvalue = [37, 0]"] ;
33 -> 44 ;
34 [label="X[5] <= 34.8\nentropy = 0.5665\nsamples = 60\nvalue = [52, 8]"] ;
23 -> 34 ;
41 [label="entropy = 0.3451\nsamples = 31\nvalue = [29, 2]"] ;
34 -> 41 ;
42 [label="entropy = 0.7355\nsamples = 29\nvalue = [23, 6]"] ;
34 -> 42 ;
24 [label="entropy = 0.9024\nsamples = 22\nvalue = [15, 7]"] ;
7 -> 24 ;
8 [label="X[0] <= 6.5\nentropy = 0.9272\nsamples = 219\nvalue = [144, 75]"] ;
4 -> 8 ;
11 [label="X[3] <= 5.0\nentropy = 0.8439\nsamples = 173\nvalue = [126, 47]"] ;
8 -> 11 ;
19 [label="X[1] <= 111.5\nentropy = 0.9934\nsamples = 42\nvalue = [23, 19]"] ;
11 -> 19 ;
35 [label="entropy = 0.8113\nsamples = 16\nvalue = [12, 4]"] ;
19 -> 35 ;
36 [label="entropy = 0.9829\nsamples = 26\nvalue = [11, 15]"] ;
19 -> 36 ;
20 [label="X[6] <= 0.5085\nentropy = 0.7486\nsamples = 131\nvalue = [103, 28]"] ;
11 -> 20 ;
21 [label="entropy = 0.4812\nsamples = 77\nvalue = [69, 8]"] ;
20 -> 21 ;
22 [label="entropy = 0.951\nsamples = 54\nvalue = [34, 20]"] ;
20 -> 22 ;
12 [label="X[6] <= 0.396\nentropy = 0.9656\nsamples = 46\nvalue = [18, 28]"] ;
8 -> 12 ;
15 [label="entropy = 0.9852\nsamples = 28\nvalue = [16, 12]"] ;
12 -> 15 ;
16 [label="entropy = 0.5033\nsamples = 18\nvalue = [2, 16]"] ;
12 -> 16 ;
2 [label="X[5] <= 29.95\nentropy = 0.9616\nsamples = 283\nvalue = [109, 174]"] ;
0 -> 2 [labeldistance=2.5, labelangle=-45, headlabel="False"] ;
5 [label="X[1] <= 145.5\nentropy = 0.8997\nsamples = 76\nvalue = [52, 24]"] ;
2 -> 5 ;
13 [label="X[0] <= 2.5\nentropy = 0.6006\nsamples = 41\nvalue = [35, 6]"] ;
5 -> 13 ;
45 [label="entropy = 0.3095\nsamples = 18\nvalue = [17, 1]"] ;
13 -> 45 ;
46 [label="entropy = 0.7554\nsamples = 23\nvalue = [18, 5]"] ;
13 -> 46 ;
14 [label="X[1] <= 161.5\nentropy = 0.9994\nsamples = 35\nvalue = [17, 18]"] ;
5 -> 14 ;
49 [label="entropy = 0.9819\nsamples = 19\nvalue = [11, 8]"] ;
14 -> 49 ;
50 [label="entropy = 0.9544\nsamples = 16\nvalue = [6, 10]"] ;
14 -> 50 ;
6 [label="X[1] <= 157.5\nentropy = 0.8491\nsamples = 207\nvalue = [57, 150]"] ;
2 -> 6 ;
9 [label="X[2] <= 61.0\nentropy = 0.9656\nsamples = 115\nvalue = [45, 70]"] ;
6 -> 9 ;
17 [label="entropy = 0.3534\nsamples = 15\nvalue = [1, 14]"] ;
9 -> 17 ;
18 [label="X[0] <= 7.5\nentropy = 0.9896\nsamples = 100\nvalue = [44, 56]"] ;
9 -> 18 ;
25 [label="X[4] <= 192.0\nentropy = 0.9995\nsamples = 76\nvalue = [39, 37]"] ;
18 -> 25 ;
27 [label="entropy = 0.9819\nsamples = 57\nvalue = [24, 33]"] ;
25 -> 27 ;
28 [label="entropy = 0.7425\nsamples = 19\nvalue = [15, 4]"] ;
25 -> 28 ;
26 [label="entropy = 0.7383\nsamples = 24\nvalue = [5, 19]"] ;
18 -> 26 ;
10 [label="X[6] <= 0.3005\nentropy = 0.5586\nsamples = 92\nvalue = [12, 80]"] ;
6 -> 10 ;
37 [label="entropy = 0.795\nsamples = 25\nvalue = [6, 19]"] ;
10 -> 37 ;
38 [label="X[0] <= 6.5\nentropy = 0.435\nsamples = 67\nvalue = [6, 61]"] ;
10 -> 38 ;
39 [label="X[2] <= 77.0\nentropy = 0.5586\nsamples = 46\nvalue = [6, 40]"] ;
38 -> 39 ;
47 [label="entropy = 0.3712\nsamples = 28\nvalue = [2, 26]"] ;
39 -> 47 ;
48 [label="entropy = 0.7642\nsamples = 18\nvalue = [4, 14]"] ;
39 -> 48 ;
40 [label="entropy = 0.0\nsamples = 21\nvalue = [0, 21]"] ;
38 -> 40 ;
}